digraph Tree {
node [shape=box] ;
0 [label="absences <= 0.5\ngini = 0.9205\nsamples = 316\nvalue = [7, 3, 13, 8, 11, 15, 24, 39, 31, 33, 36, 27, 22\n21, 10, 6, 8, 2]"] ;
1 [label="failures <= 0.5\ngini = 0.9246\nsamples = 92\nvalue = [7, 3, 13, 4, 5, 4, 4, 7, 5, 6, 2, 9, 10, 5\n2, 3, 2, 1]"] ;
0 -> 1 [labeldistance=2.5, labelangle=45, headlabel="True"] ;
2 [label="Fjob_teacher <= 0.5\ngini = 0.924\nsamples = 67\nvalue = [4, 3, 2, 2, 3, 1, 4, 5, 5, 6, 2, 7, 10, 5\n2, 3, 2, 1]"] ;
1 -> 2 ;
3 [label="Fjob_other <= 0.5\ngini = 0.8642\nsamples = 36\nvalue = [2, 0, 0, 2, 2, 1, 0, 3, 1, 3, 1, 6, 10, 2\n0, 1, 1, 1]"] ;
2 -> 3 ;
4 [label="address_U <= 0.5\ngini = 0.8316\nsamples = 28\nvalue = [1, 0, 0, 2, 1, 1, 0, 3, 0, 2, 1, 2, 10, 2\n0, 1, 1, 1]"] ;
3 -> 4 ;
5 [label="gini = 0.8395\nsamples = 9\nvalue = [0, 0, 0, 1, 0, 0, 0, 2, 0, 2, 1, 1, 0, 0, 0\n0, 1, 1]"] ;
4 -> 5 ;
6 [label="gini = 0.6925\nsamples = 19\nvalue = [1, 0, 0, 1, 1, 1, 0, 1, 0, 0, 0, 1, 10, 2\n0, 1, 0, 0]"] ;
4 -> 6 ;
7 [label="health <= 4.5\ngini = 0.6875\nsamples = 8\nvalue = [1, 0, 0, 0, 1, 0, 0, 0, 1, 1, 0, 4, 0, 0, 0\n0, 0, 0]"] ;
3 -> 7 ;
8 [label="gini = 0.75\nsamples = 4\nvalue = [1, 0, 0, 0, 1, 0, 0, 0, 1, 1, 0, 0, 0, 0, 0\n0, 0, 0]"] ;
7 -> 8 ;
9 [label="gini = 0.0\nsamples = 4\nvalue = [0, 0, 0, 0, 0, 0, 0, 0, 0, 0, 0, 4, 0, 0, 0\n0, 0, 0]"] ;
7 -> 9 ;
10 [label="traveltime <= 2.5\ngini = 0.9136\nsamples = 31\nvalue = [2, 3, 2, 0, 1, 0, 4, 2, 4, 3, 1, 1, 0, 3, 2\n2, 1, 0]"] ;
2 -> 10 ;
11 [label="Walc <= 3.5\ngini = 0.8999\nsamples = 27\nvalue = [2, 0, 2, 0, 1, 0, 4, 2, 4, 3, 1, 0, 0, 3, 2\n2, 1, 0]"] ;
10 -> 11 ;
12 [label="gini = 0.896\nsamples = 25\nvalue = [2, 0, 2, 0, 1, 0, 4, 2, 4, 1, 1, 0, 0, 3, 2\n2, 1, 0]"] ;
11 -> 12 ;
13 [label="gini = 0.0\nsamples = 2\nvalue = [0, 0, 0, 0, 0, 0, 0, 0, 0, 2, 0, 0, 0, 0, 0\n0, 0, 0]"] ;
11 -> 13 ;
14 [label="roundedAvg <= 0.5\ngini = 0.375\nsamples = 4\nvalue = [0, 3, 0, 0, 0, 0, 0, 0, 0, 0, 0, 1, 0, 0, 0\n0, 0, 0]"] ;
10 -> 14 ;
15 [label="gini = 0.0\nsamples = 1\nvalue = [0, 0, 0, 0, 0, 0, 0, 0, 0, 0, 0, 1, 0, 0, 0\n0, 0, 0]"] ;
14 -> 15 ;
16 [label="gini = 0.0\nsamples = 3\nvalue = [0, 3, 0, 0, 0, 0, 0, 0, 0, 0, 0, 0, 0, 0, 0\n0, 0, 0]"] ;
14 -> 16 ;
17 [label="goout <= 2.5\ngini = 0.752\nsamples = 25\nvalue = [3, 0, 11, 2, 2, 3, 0, 2, 0, 0, 0, 2, 0, 0\n0, 0, 0, 0]"] ;
1 -> 17 ;
18 [label="Pstatus_A <= 0.5\ngini = 0.3704\nsamples = 9\nvalue = [0, 0, 7, 0, 1, 0, 0, 1, 0, 0, 0, 0, 0, 0, 0\n0, 0, 0]"] ;
17 -> 18 ;
19 [label="gini = 0.0\nsamples = 1\nvalue = [0, 0, 0, 0, 1, 0, 0, 0, 0, 0, 0, 0, 0, 0, 0\n0, 0, 0]"] ;
18 -> 19 ;
20 [label="guardian_other <= 0.5\ngini = 0.2188\nsamples = 8\nvalue = [0, 0, 7, 0, 0, 0, 0, 1, 0, 0, 0, 0, 0, 0, 0\n0, 0, 0]"] ;
18 -> 20 ;
21 [label="gini = 0.0\nsamples = 1\nvalue = [0, 0, 0, 0, 0, 0, 0, 1, 0, 0, 0, 0, 0, 0, 0\n0, 0, 0]"] ;
20 -> 21 ;
22 [label="gini = 0.0\nsamples = 7\nvalue = [0, 0, 7, 0, 0, 0, 0, 0, 0, 0, 0, 0, 0, 0, 0\n0, 0, 0]"] ;
20 -> 22 ;
23 [label="famrel <= 3.5\ngini = 0.8281\nsamples = 16\nvalue = [3, 0, 4, 2, 1, 3, 0, 1, 0, 0, 0, 2, 0, 0, 0\n0, 0, 0]"] ;
17 -> 23 ;
24 [label="gini = 0.0\nsamples = 3\nvalue = [0, 0, 3, 0, 0, 0, 0, 0, 0, 0, 0, 0, 0, 0, 0\n0, 0, 0]"] ;
23 -> 24 ;
25 [label="studytime <= 1.5\ngini = 0.8284\nsamples = 13\nvalue = [3, 0, 1, 2, 1, 3, 0, 1, 0, 0, 0, 2, 0, 0, 0\n0, 0, 0]"] ;
23 -> 25 ;
26 [label="gini = 0.56\nsamples = 5\nvalue = [3, 0, 0, 0, 0, 1, 0, 1, 0, 0, 0, 0, 0, 0, 0\n0, 0, 0]"] ;
25 -> 26 ;
27 [label="gini = 0.7812\nsamples = 8\nvalue = [0, 0, 1, 2, 1, 2, 0, 0, 0, 0, 0, 2, 0, 0, 0\n0, 0, 0]"] ;
25 -> 27 ;
28 [label="failures <= 2.5\ngini = 0.9005\nsamples = 224\nvalue = [0, 0, 0, 4, 6, 11, 20, 32, 26, 27, 34, 18, 12\n16, 8, 3, 6, 1]"] ;
0 -> 28 [labeldistance=2.5, labelangle=-45, headlabel="False"] ;
29 [label="reason_course <= 0.5\ngini = 0.8988\nsamples = 218\nvalue = [0, 0, 0, 4, 6, 9, 16, 32, 26, 27, 34, 18, 12\n16, 8, 3, 6, 1]"] ;
28 -> 29 ;
30 [label="Pstatus_A <= 0.5\ngini = 0.8972\nsamples = 157\nvalue = [0, 0, 0, 4, 3, 6, 13, 15, 24, 19, 25, 16, 9\n12, 4, 2, 4, 1]"] ;
29 -> 30 ;
31 [label="Fjob_other <= 0.5\ngini = 0.7551\nsamples = 14\nvalue = [0, 0, 0, 0, 0, 1, 1, 0, 0, 6, 2, 2, 0, 1, 0\n1, 0, 0]"] ;
30 -> 31 ;
32 [label="gini = 0.6944\nsamples = 12\nvalue = [0, 0, 0, 0, 0, 1, 1, 0, 0, 6, 2, 0, 0, 1, 0\n1, 0, 0]"] ;
31 -> 32 ;
33 [label="gini = 0.0\nsamples = 2\nvalue = [0, 0, 0, 0, 0, 0, 0, 0, 0, 0, 0, 2, 0, 0, 0\n0, 0, 0]"] ;
31 -> 33 ;
34 [label="goout <= 2.5\ngini = 0.8961\nsamples = 143\nvalue = [0, 0, 0, 4, 3, 5, 12, 15, 24, 13, 23, 14, 9\n11, 4, 1, 4, 1]"] ;
30 -> 34 ;
35 [label="gini = 0.8518\nsamples = 38\nvalue = [0, 0, 0, 0, 1, 0, 2, 4, 4, 6, 11, 2, 2, 1\n3, 0, 1, 1]"] ;
34 -> 35 ;
36 [label="gini = 0.8945\nsamples = 105\nvalue = [0, 0, 0, 4, 2, 5, 10, 11, 20, 7, 12, 12, 7\n10, 1, 1, 3, 0]"] ;
34 -> 36 ;
37 [label="Mjob_other <= 0.5\ngini = 0.8616\nsamples = 61\nvalue = [0, 0, 0, 0, 3, 3, 3, 17, 2, 8, 9, 2, 3, 4\n4, 1, 2, 0]"] ;
29 -> 37 ;
38 [label="traveltime <= 1.5\ngini = 0.7965\nsamples = 44\nvalue = [0, 0, 0, 0, 2, 1, 2, 17, 2, 6, 6, 1, 3, 1\n3, 0, 0, 0]"] ;
37 -> 38 ;
39 [label="gini = 0.8359\nsamples = 32\nvalue = [0, 0, 0, 0, 1, 0, 1, 9, 2, 5, 6, 1, 3, 1, 3\n0, 0, 0]"] ;
38 -> 39 ;
40 [label="gini = 0.5278\nsamples = 12\nvalue = [0, 0, 0, 0, 1, 1, 1, 8, 0, 1, 0, 0, 0, 0, 0\n0, 0, 0]"] ;
38 -> 40 ;
41 [label="health <= 3.5\ngini = 0.8789\nsamples = 17\nvalue = [0, 0, 0, 0, 1, 2, 1, 0, 0, 2, 3, 1, 0, 3, 1\n1, 2, 0]"] ;
37 -> 41 ;
42 [label="gini = 0.75\nsamples = 8\nvalue = [0, 0, 0, 0, 1, 0, 0, 0, 0, 1, 3, 0, 0, 0, 1\n0, 2, 0]"] ;
41 -> 42 ;
43 [label="gini = 0.7901\nsamples = 9\nvalue = [0, 0, 0, 0, 0, 2, 1, 0, 0, 1, 0, 1, 0, 3, 0\n1, 0, 0]"] ;
41 -> 43 ;
44 [label="Medu <= 2.0\ngini = 0.4444\nsamples = 6\nvalue = [0, 0, 0, 0, 0, 2, 4, 0, 0, 0, 0, 0, 0, 0, 0\n0, 0, 0]"] ;
28 -> 44 ;
45 [label="gini = 0.0\nsamples = 4\nvalue = [0, 0, 0, 0, 0, 0, 4, 0, 0, 0, 0, 0, 0, 0, 0\n0, 0, 0]"] ;
44 -> 45 ;
46 [label="gini = 0.0\nsamples = 2\nvalue = [0, 0, 0, 0, 0, 2, 0, 0, 0, 0, 0, 0, 0, 0, 0\n0, 0, 0]"] ;
44 -> 46 ;
}